<?xml version="1.0"?>
<opencv_storage>
<stage9>
  <maxWeakCount>13</maxWeakCount>
  <stageThreshold>-6.0164642333984375e-01</stageThreshold>
  <weakClassifiers>
    <_>
      <internalNodes>
        0 -1 127283 3.6951482295989990e-02</internalNodes>
      <leafValues>
        -6.3157892227172852e-01 1.8181818723678589e-01</leafValues></_>
    <_>
      <internalNodes>
        0 -1 162268 2.6765061193145812e-05</internalNodes>
      <leafValues>
        1.7502832412719727e-01 -6.1697256565093994e-01</leafValues></_>
    <_>
      <internalNodes>
        0 -1 25759 -4.6716337237739936e-05</internalNodes>
      <leafValues>
        -5.8106613159179688e-01 1.9923812150955200e-01</leafValues></_>
    <_>
      <internalNodes>
        0 -1 107330 -3.9463634602725506e-03</internalNodes>
      <leafValues>
        2.8588899970054626e-01 -4.7315126657485962e-01</leafValues></_>
    <_>
      <internalNodes>
        0 -1 137202 -5.4439343512058258e-02</internalNodes>
      <leafValues>
        -2.4568654596805573e-01 4.6311086416244507e-01</leafValues></_>
    <_>
      <internalNodes>
        0 -1 106147 -2.7224101126194000e-02</internalNodes>
      <leafValues>
        1.9643203914165497e-01 -6.9356954097747803e-01</leafValues></_>
    <_>
      <internalNodes>
        0 -1 117695 7.1851596236228943e-02</internalNodes>
      <leafValues>
        -1.8063624203205109e-01 7.6309865713119507e-01</leafValues></_>
    <_>
      <internalNodes>
        0 -1 161894 -2.8514442965388298e-04</internalNodes>
      <leafValues>
        -5.5722606182098389e-01 2.4920149147510529e-01</leafValues></_>
    <_>
      <internalNodes>
        0 -1 76880 -2.1189723163843155e-02</internalNodes>
      <leafValues>
        -2.1325181424617767e-01 7.2868335247039795e-01</leafValues></_>
    <_>
      <internalNodes>
        0 -1 154642 -1.9089235865976661e-04</internalNodes>
      <leafValues>
        5.1655310392379761e-01 -2.5743454694747925e-01</leafValues></_>
    <_>
      <internalNodes>
        0 -1 9479 5.0879360060207546e-05</internalNodes>
      <leafValues>
        2.7356365323066711e-01 -5.1932954788208008e-01</leafValues></_>
    <_>
      <internalNodes>
        0 -1 66138 2.7759654913097620e-03</internalNodes>
      <leafValues>
        1.6728717088699341e-01 -8.4965354204177856e-01</leafValues></_>
    <_>
      <internalNodes>
        0 -1 161970 -4.0633810567669570e-04</internalNodes>
      <leafValues>
        -5.8842825889587402e-01 2.1025054156780243e-01</leafValues></_></weakClassifiers></stage9>
</opencv_storage>
