<?xml version="1.0"?>
<opencv_storage>
<stage0>
  <maxWeakCount>6</maxWeakCount>
  <stageThreshold>-8.1294614076614380e-01</stageThreshold>
  <weakClassifiers>
    <_>
      <internalNodes>
        0 -1 3396 -5.5638208985328674e-02</internalNodes>
      <leafValues>
        6.8085104227066040e-01 -7.9611653089523315e-01</leafValues></_>
    <_>
      <internalNodes>
        0 -1 134101 5.5316716432571411e-02</internalNodes>
      <leafValues>
        -7.2793984413146973e-01 6.9022160768508911e-01</leafValues></_>
    <_>
      <internalNodes>
        0 -1 144142 -1.4044814743101597e-02</internalNodes>
      <leafValues>
        7.4224311113357544e-01 -6.7299926280975342e-01</leafValues></_>
    <_>
      <internalNodes>
        0 -1 68533 3.7756823003292084e-02</internalNodes>
      <leafValues>
        -8.1793254613876343e-01 5.1810806989669800e-01</leafValues></_>
    <_>
      <internalNodes>
        0 -1 92346 9.8227858543395996e-03</internalNodes>
      <leafValues>
        -7.8442049026489258e-01 4.4517743587493896e-01</leafValues></_>
    <_>
      <internalNodes>
        0 -1 26373 -2.9965213034301996e-03</internalNodes>
      <leafValues>
        4.2082399129867554e-01 -7.6396298408508301e-01</leafValues></_></weakClassifiers></stage0>
</opencv_storage>
