<?xml version="1.0"?>
<opencv_storage>
<stage4>
  <maxWeakCount>8</maxWeakCount>
  <stageThreshold>-5.1792544126510620e-01</stageThreshold>
  <weakClassifiers>
    <_>
      <internalNodes>
        0 -1 77378 7.4129388667643070e-03</internalNodes>
      <leafValues>
        -5.0000000000000000e-01 6.3636362552642822e-01</leafValues></_>
    <_>
      <internalNodes>
        0 -1 155390 -5.8602890931069851e-03</internalNodes>
      <leafValues>
        -8.7210142612457275e-01 1.8559105694293976e-01</leafValues></_>
    <_>
      <internalNodes>
        0 -1 85843 3.5176984965801239e-03</internalNodes>
      <leafValues>
        -3.1940370798110962e-01 5.6909143924713135e-01</leafValues></_>
    <_>
      <internalNodes>
        0 -1 2128 2.4921830117818899e-05</internalNodes>
      <leafValues>
        2.5912201404571533e-01 -7.3756355047225952e-01</leafValues></_>
    <_>
      <internalNodes>
        0 -1 1215 8.4985792636871338e-04</internalNodes>
      <leafValues>
        1.9930307567119598e-01 -7.4558806419372559e-01</leafValues></_>
    <_>
      <internalNodes>
        0 -1 162097 -2.8731365091516636e-05</internalNodes>
      <leafValues>
        -5.9807741641998291e-01 2.8133600950241089e-01</leafValues></_>
    <_>
      <internalNodes>
        0 -1 161789 2.9596973035950214e-05</internalNodes>
      <leafValues>
        2.3426429927349091e-01 -6.6865819692611694e-01</leafValues></_>
    <_>
      <internalNodes>
        0 -1 100539 -1.2594008445739746e-01</internalNodes>
      <leafValues>
        -8.6721992492675781e-01 1.9877360761165619e-01</leafValues></_></weakClassifiers></stage4>
</opencv_storage>
