<?xml version="1.0"?>
<opencv_storage>
<stage5>
  <maxWeakCount>10</maxWeakCount>
  <stageThreshold>-4.7473433613777161e-01</stageThreshold>
  <weakClassifiers>
    <_>
      <internalNodes>
        0 -1 148481 -3.4034602344036102e-02</internalNodes>
      <leafValues>
        2.4271844327449799e-01 -6.3451778888702393e-01</leafValues></_>
    <_>
      <internalNodes>
        0 -1 13676 -2.0810110494494438e-02</internalNodes>
      <leafValues>
        3.6671259999275208e-01 -5.8973872661590576e-01</leafValues></_>
    <_>
      <internalNodes>
        0 -1 47585 -2.0908232778310776e-02</internalNodes>
      <leafValues>
        -3.1551083922386169e-01 6.5999078750610352e-01</leafValues></_>
    <_>
      <internalNodes>
        0 -1 50077 -2.2963758558034897e-02</internalNodes>
      <leafValues>
        4.8639646172523499e-01 -4.4721898436546326e-01</leafValues></_>
    <_>
      <internalNodes>
        0 -1 74797 6.9765821099281311e-02</internalNodes>
      <leafValues>
        -3.2749658823013306e-01 7.1002626419067383e-01</leafValues></_>
    <_>
      <internalNodes>
        0 -1 77799 4.5011698966845870e-04</internalNodes>
      <leafValues>
        -2.6239007711410522e-01 5.9354501962661743e-01</leafValues></_>
    <_>
      <internalNodes>
        0 -1 130729 -8.1457242369651794e-02</internalNodes>
      <leafValues>
        -2.8431823849678040e-01 7.6198208332061768e-01</leafValues></_>
    <_>
      <internalNodes>
        0 -1 13302 2.1343797925510444e-05</internalNodes>
      <leafValues>
        3.8422757387161255e-01 -6.7482775449752808e-01</leafValues></_>
    <_>
      <internalNodes>
        0 -1 67728 2.5437958538532257e-03</internalNodes>
      <leafValues>
        -3.3819752931594849e-01 6.6142052412033081e-01</leafValues></_>
    <_>
      <internalNodes>
        0 -1 57668 -3.2111897598952055e-04</internalNodes>
      <leafValues>
        5.7159531116485596e-01 -3.4919577836990356e-01</leafValues></_></weakClassifiers></stage5>
</opencv_storage>
